<?xml version="1.0"?>
<opencv_storage>
<cascade>
  <stageType>BOOST</stageType>
  <featureType>LBP</featureType>
  <height>112</height>
  <width>92</width>
  <stageParams>
    <boostType>GAB</boostType>
    <minHitRate>9.9900001287460327e-01</minHitRate>
    <maxFalseAlarm>5.0000000000000000e-01</maxFalseAlarm>
    <weightTrimRate>9.4999999999999996e-01</weightTrimRate>
    <maxDepth>1</maxDepth>
    <maxWeakCount>100</maxWeakCount></stageParams>
  <featureParams>
    <maxCatCount>256</maxCatCount>
    <featSize>1</featSize></featureParams>
  <stageNum>20</stageNum>
  <stages>
    <!-- stage 0 -->
    <_>
      <maxWeakCount>3</maxWeakCount>
      <stageThreshold>-1.0404841899871826e+00</stageThreshold>
      <weakClassifiers>
        <_>
          <internalNodes>
            0 -1 1 -543427128 -708247550 1203200 -615288637 -770985794
            -1282746354 -406797372 -68172833</internalNodes>
          <leafValues>
            -8.8486844301223755e-01 7.6739925146102905e-01</leafValues></_>
        <_>
          <internalNodes>
            0 -1 66 -167511741 -787918829 272666715 -719384547
            -758986206 -33371838 -217568501 -17605</internalNodes>
          <leafValues>
            -7.1918565034866333e-01 6.8220520019531250e-01</leafValues></_>
        <_>
          <internalNodes>
            0 -1 11 -733034290 -1027603388 286279898 595886219
            -652031526 -75427630 1082698634 -550777941</internalNodes>
          <leafValues>
            -8.2503396272659302e-01 5.6356990337371826e-01</leafValues></_></weakClassifiers></_>
    <!-- stage 1 -->
    <_>
      <maxWeakCount>3</maxWeakCount>
      <stageThreshold>-8.7399357557296753e-01</stageThreshold>
      <weakClassifiers>
        <_>
          <internalNodes>
            0 -1 88 -8388783 -524460 -1023410195 -8679401 -8398528
            -8913040 -134269696 -1048593</internalNodes>
          <leafValues>
            -7.6204818487167358e-01 7.7799224853515625e-01</leafValues></_>
        <_>
          <internalNodes>
            0 -1 2 -112532248 -716630628 788566144 -1080704619
            -2054970918 -1164836854 -95892514 -67375893</internalNodes>
          <leafValues>
            -7.5441527366638184e-01 6.6692680120468140e-01</leafValues></_>
        <_>
          <internalNodes>
            0 -1 18 -355999058 -1068178812 -2096529333 -1303281084
            -519318569 -1062893551 -216415537 -558898517</internalNodes>
          <leafValues>
            -7.0752620697021484e-01 6.4246988296508789e-01</leafValues></_></weakClassifiers></_>
    <!-- stage 2 -->
    <_>
      <maxWeakCount>5</maxWeakCount>
      <stageThreshold>-9.3246257305145264e-01</stageThreshold>
      <weakClassifiers>
        <_>
          <internalNodes>
            0 -1 92 -243279362 -217890559 22201884 -779382759 -256688064
            -400310255 -1852764096 -273445</internalNodes>
          <leafValues>
            -7.2937291860580444e-01 6.7824494838714600e-01</leafValues></_>
        <_>
          <internalNodes>
            0 -1 20 -493167106 -586989097 554172940 754975753 -448535665
            -1630470015 -366624023 -14708981</internalNodes>
          <leafValues>
            -7.3733711242675781e-01 5.8657497167587280e-01</leafValues></_>
        <_>
          <internalNodes>
            0 -1 58 1518584017 -543326012 -1743056769 -685859797
            -1056709901 -2003140595 -619986757 1066117291</internalNodes>
          <leafValues>
            -6.2275046110153198e-01 6.5228611230850220e-01</leafValues></_>
        <_>
          <internalNodes>
            0 -1 14 -892670418 -263487037 1053445 -764804349 139290
            269074465 -691896317 -270534433</internalNodes>
          <leafValues>
            -7.3318845033645630e-01 6.0514414310455322e-01</leafValues></_>
        <_>
          <internalNodes>
            0 -1 64 -1059663856 -800047082 12684733 1896547353
            -1148132453 -921452398 729916602 -1077949765</internalNodes>
          <leafValues>
            -7.0876228809356689e-01 6.0939961671829224e-01</leafValues></_></weakClassifiers></_>
    <!-- stage 3 -->
    <_>
      <maxWeakCount>5</maxWeakCount>
      <stageThreshold>-1.0434073209762573e+00</stageThreshold>
      <weakClassifiers>
        <_>
          <internalNodes>
            0 -1 70 -75499581 -550796683 -1870653177 -2091032273
            -1147621840 -349984744 -883879936 -8402853</internalNodes>
          <leafValues>
            -7.0940172672271729e-01 6.4125561714172363e-01</leafValues></_>
        <_>
          <internalNodes>
            0 -1 49 -705900070 -101202933 -1827501796 1594534664
            -1999787585 -1983209469 35883160 1057106954</internalNodes>
          <leafValues>
            -7.5321930646896362e-01 5.2768498659133911e-01</leafValues></_>
        <_>
          <internalNodes>
            0 -1 22 -783876216 -618209272 304386251 799768729
            -1668983285 -1694334963 411735179 -12596289</internalNodes>
          <leafValues>
            -7.3752850294113159e-01 4.9914792180061340e-01</leafValues></_>
        <_>
          <internalNodes>
            0 -1 31 -137915905 -1870643118 1368408210 -741859068
            -2130460218 -852983796 -393624820 -280717056</internalNodes>
          <leafValues>
            -6.9762986898422241e-01 5.3712534904479980e-01</leafValues></_>
        <_>
          <internalNodes>
            0 -1 50 -662449423 -670646202 33714237 1495859615
            -1207835677 -1928822780 1074384283 -619732973</internalNodes>
          <leafValues>
            -6.1705952882766724e-01 6.3232070207595825e-01</leafValues></_></weakClassifiers></_>
    <!-- stage 4 -->
    <_>
      <maxWeakCount>5</maxWeakCount>
      <stageThreshold>-8.9882445335388184e-01</stageThreshold>
      <weakClassifiers>
        <_>
          <internalNodes>
            0 -1 15 -107223048 1398262167 -238813056 -73445089
            -1060664097 42008963 -670842667 -335819797</internalNodes>
          <leafValues>
            -6.9645869731903076e-01 6.4408308267593384e-01</leafValues></_>
        <_>
          <internalNodes>
            0 -1 82 -45133552 1534267867 -889123428 2135883915
            -1968470604 1661511051 -123154020 -105910838</internalNodes>
          <leafValues>
            -7.1773821115493774e-01 5.3893840312957764e-01</leafValues></_>
        <_>
          <internalNodes>
            0 -1 81 -1039937061 -799161849 1360068673 1158499346
            277004987 -645758792 365545610 1999581738</internalNodes>
          <leafValues>
            -6.4706486463546753e-01 5.4464823007583618e-01</leafValues></_>
        <_>
          <internalNodes>
            0 -1 107 -411576011 -115601405 610624 -586829757 1091561543
            -1744785279 -1962729184 -909911837</internalNodes>
          <leafValues>
            -6.1121052503585815e-01 6.1783689260482788e-01</leafValues></_>
        <_>
          <internalNodes>
            0 -1 21 -296270482 -946229728 1610679129 559104024
            -1549223541 193134723 -246840853 -276302941</internalNodes>
          <leafValues>
            -6.4711260795593262e-01 5.5829769372940063e-01</leafValues></_></weakClassifiers></_>
    <!-- stage 5 -->
    <_>
      <maxWeakCount>6</maxWeakCount>
      <stageThreshold>-4.3798613548278809e-01</stageThreshold>
      <weakClassifiers>
        <_>
          <internalNodes>
            0 -1 105 -8397051 -142770371 -8421381 -260046977 2013207812
            2138406775 2138930568 -8388617</internalNodes>
          <leafValues>
            -5.9289175271987915e-01 6.1702126264572144e-01</leafValues></_>
        <_>
          <internalNodes>
            0 -1 17 -494736642 -180186941 -1256533972 153145608
            -517547334 -805224299 -1727359794 -410266945</internalNodes>
          <leafValues>
            -7.2352629899978638e-01 4.7100898623466492e-01</leafValues></_>
        <_>
          <internalNodes>
            0 -1 40 -704572720 -1101708164 -1873208545 -602602215
            -1039630144 -628522879 176859387 -342643653</internalNodes>
          <leafValues>
            -6.8657988309860229e-01 5.2821409702301025e-01</leafValues></_>
        <_>
          <internalNodes>
            0 -1 43 -613682960 1695776836 -763228135 1419313152
            -1741016270 -866965482 -1861570245 1067139882</internalNodes>
          <leafValues>
            -7.0594781637191772e-01 4.8871856927871704e-01</leafValues></_>
        <_>
          <internalNodes>
            0 -1 112 -1142701481 -654098368 -1073426424 440434761
            -528481183 -771536375 -1592057636 -234160149</internalNodes>
          <leafValues>
            -5.8683818578720093e-01 6.0607403516769409e-01</leafValues></_>
        <_>
          <internalNodes>
            0 -1 33 139864055 -289353712 1098924691 1551941762
            -1970601031 -1702297472 -511596131 -604530675</internalNodes>
          <leafValues>
            -7.2431612014770508e-01 5.1609683036804199e-01</leafValues></_></weakClassifiers></_>
    <!-- stage 6 -->
    <_>
      <maxWeakCount>6</maxWeakCount>
      <stageThreshold>-8.2655769586563110e-01</stageThreshold>
      <weakClassifiers>
        <_>
          <internalNodes>
            0 -1 98 -178291179 1426587931 1006655765 1377108030
            -2138510779 1078525963 -922015560 789226543</internalNodes>
          <leafValues>
            -7.3684209585189819e-01 5.5058044195175171e-01</leafValues></_>
        <_>
          <internalNodes>
            0 -1 55 -1137392557 -318701411 -485143013 1348358449
            -1599977438 -1206878208 -2011757813 -51646101</internalNodes>
          <leafValues>
            -6.5148234367370605e-01 5.1749455928802490e-01</leafValues></_>
        <_>
          <internalNodes>
            0 -1 101 -640961360 -955149818 537018819 1359074887
            -391056908 -2013233021 -1863778059 -370414609</internalNodes>
          <leafValues>
            -7.2670346498489380e-01 4.5781567692756653e-01</leafValues></_>
        <_>
          <internalNodes>
            0 -1 72 -204734516 -528268919 285312164 -1056948094
            -666459992 -2004843900 1367475340 554402314</internalNodes>
          <leafValues>
            -8.0869823694229126e-01 4.5509234070777893e-01</leafValues></_>
        <_>
          <internalNodes>
            0 -1 97 927805539 -1571717073 -792117078 -900463738
            -661752724 -1484742132 -771370940 -337708928</internalNodes>
          <leafValues>
            -7.7018743753433228e-01 4.0704137086868286e-01</leafValues></_>
        <_>
          <internalNodes>
            0 -1 25 239111647 -1039398461 -1189850853 -46120693
            -503217781 88162432 17277595 -237827703</internalNodes>
          <leafValues>
            -6.6661751270294189e-01 5.2115011215209961e-01</leafValues></_></weakClassifiers></_>
    <!-- stage 7 -->
    <_>
      <maxWeakCount>6</maxWeakCount>
      <stageThreshold>-4.9582633376121521e-01</stageThreshold>
      <weakClassifiers>
        <_>
          <internalNodes>
            0 -1 6 -666742580 -263782236 -1067429461 264618179
            -1532816980 -2133106517 -1589471046 -6571090</internalNodes>
          <leafValues>
            -6.5267175436019897e-01 5.4591834545135498e-01</leafValues></_>
        <_>
          <internalNodes>
            0 -1 116 -1018827005 1300955649 -2147376995 -796688295
            1361773073 -1017479135 -1325295612 -151522309</internalNodes>
          <leafValues>
            -5.8607339859008789e-01 5.3896790742874146e-01</leafValues></_>
        <_>
          <internalNodes>
            0 -1 102 -739306411 -1014890427 1224917247 1224952859
            -1039415227 -67075904 -479753560 -1156375841</internalNodes>
          <leafValues>
            -6.5718114376068115e-01 4.9458184838294983e-01</leafValues></_>
        <_>
          <internalNodes>
            0 -1 59 -794363164 -705198909 22020381 352333826 -1593605235
            -1971224576 1175505537 313749889</internalNodes>
          <leafValues>
            -7.4269562959671021e-01 4.7222995758056641e-01</leafValues></_>
        <_>
          <internalNodes>
            0 -1 8 -715442950 907165899 16863378 604126931 -165597003
            -746586104 -939404149 -1069292945</internalNodes>
          <leafValues>
            -6.6335016489028931e-01 5.1114350557327271e-01</leafValues></_>
        <_>
          <internalNodes>
            0 -1 47 -499919615 1959854096 -494325441 -1030286077
            688046370 -91078568 227454875 -1198578849</internalNodes>
          <leafValues>
            -6.4515221118927002e-01 5.3214436769485474e-01</leafValues></_></weakClassifiers></_>
    <!-- stage 8 -->
    <_>
      <maxWeakCount>5</maxWeakCount>
      <stageThreshold>-8.3807194232940674e-01</stageThreshold>
      <weakClassifiers>
        <_>
          <internalNodes>
            0 -1 7 -157884690 -1059404240 134353218 -524287480
            -268435346 -710246261 -829783917 1720700327</internalNodes>
          <leafValues>
            -7.4885845184326172e-01 4.9762281775474548e-01</leafValues></_>
        <_>
          <internalNodes>
            0 -1 67 -567026717 -2045638567 -1073042367 -796257851
            -1022297094 -925466496 -377444600 -606742256</internalNodes>
          <leafValues>
            -5.9668028354644775e-01 5.4199391603469849e-01</leafValues></_>
        <_>
          <internalNodes>
            0 -1 42 -1782186532 -175828924 -1004436962 -171879331
            -2102343765 -2004336480 2034434331 -116670210</internalNodes>
          <leafValues>
            -5.5653828382492065e-01 5.8044481277465820e-01</leafValues></_>
        <_>
          <internalNodes>
            0 -1 63 -897515471 -520019319 86066047 1469231381
            -1718058695 1551892482 -653227873 1488691363</internalNodes>
          <leafValues>
            -5.9966903924942017e-01 6.0046362876892090e-01</leafValues></_>
        <_>
          <internalNodes>
            0 -1 108 -1852842233 1396783109 -1072627617 -534593501
            -1039701968 1208357122 1237567537 -80752081</internalNodes>
          <leafValues>
            -6.4202147722244263e-01 5.2499991655349731e-01</leafValues></_></weakClassifiers></_>
    <!-- stage 9 -->
    <_>
      <maxWeakCount>6</maxWeakCount>
      <stageThreshold>-5.9291738271713257e-01</stageThreshold>
      <weakClassifiers>
        <_>
          <internalNodes>
            0 -1 45 -1541143504 -1332598251 307278772 1347448908
            -1878345283 -536161920 -1156871977 965939355</internalNodes>
          <leafValues>
            -7.6941174268722534e-01 4.9176469445228577e-01</leafValues></_>
        <_>
          <internalNodes>
            0 -1 84 1075378168 -191266678 1527372544 -1245454198
            546210751 1897333384 834912509 -1343266646</internalNodes>
          <leafValues>
            -6.3878673315048218e-01 4.7951573133468628e-01</leafValues></_>
        <_>
          <internalNodes>
            0 -1 106 -526435465 1594819589 -2147154497 268796083
            1221296148 1627684888 -2063283000 1663731739</internalNodes>
          <leafValues>
            -6.7131638526916504e-01 5.0064069032669067e-01</leafValues></_>
        <_>
          <internalNodes>
            0 -1 4 -435895002 -402469182 1359021100 173279748
            -2146860895 -913308862 -1860116318 -4220146</internalNodes>
          <leafValues>
            -8.5033130645751953e-01 4.0201646089553833e-01</leafValues></_>
        <_>
          <internalNodes>
            0 -1 86 290551727 134664524 -1056681709 233265546 1103307115
            -1173684223 1486031019 -1528465279</internalNodes>
          <leafValues>
            -6.7425000667572021e-01 4.7258931398391724e-01</leafValues></_>
        <_>
          <internalNodes>
            0 -1 32 937693271 -587268541 -1125761483 -142917869
            -1397795391 -549486738 112076019 -277872769</internalNodes>
          <leafValues>
            -5.1513946056365967e-01 6.9569194316864014e-01</leafValues></_></weakClassifiers></_>
    <!-- stage 10 -->
    <_>
      <maxWeakCount>7</maxWeakCount>
      <stageThreshold>-8.2992726564407349e-01</stageThreshold>
      <weakClassifiers>
        <_>
          <internalNodes>
            0 -1 9 -2129 -202444822 -1130812 -83188224 -10 -404815897
            -135398993 -16517366</internalNodes>
          <leafValues>
            -4.4594594836235046e-01 6.5625000000000000e-01</leafValues></_>
        <_>
          <internalNodes>
            0 -1 80 1267582719 -786104170 1476478294 -202685947
            411235242 -504134968 420123786 1895989930</internalNodes>
          <leafValues>
            -5.3995835781097412e-01 5.6630146503448486e-01</leafValues></_>
        <_>
          <internalNodes>
            0 -1 26 -1573979185 -1487634165 553718157 118842380
            -935229009 -1735778200 1082192201 1261436574</internalNodes>
          <leafValues>
            -5.8647793531417847e-01 5.3905522823333740e-01</leafValues></_>
        <_>
          <internalNodes>
            0 -1 36 -95311052 -1324314160 1091637760 2140406284
            562127359 377799425 1344995603 1270827600</internalNodes>
          <leafValues>
            -6.8876707553863525e-01 4.8251760005950928e-01</leafValues></_>
        <_>
          <internalNodes>
            0 -1 111 -950930927 1287848207 -2138472091 -1069362593
            1040584961 1140858885 -1048558592 -230307121</internalNodes>
          <leafValues>
            -6.8415462970733643e-01 4.7286194562911987e-01</leafValues></_>
        <_>
          <internalNodes>
            0 -1 69 -578619448 -585957301 295057 -515829760 -1669037569
            504627278 -1868551861 -1723475489</internalNodes>
          <leafValues>
            -6.4560621976852417e-01 4.8942369222640991e-01</leafValues></_>
        <_>
          <internalNodes>
            0 -1 110 -1676189205 -620752800 1074841601 -1862168434
            1075250138 -1073627007 -662683244 -597456859</internalNodes>
          <leafValues>
            -6.0584002733230591e-01 5.8189529180526733e-01</leafValues></_></weakClassifiers></_>
    <!-- stage 11 -->
    <_>
      <maxWeakCount>7</maxWeakCount>
      <stageThreshold>-8.4084469079971313e-01</stageThreshold>
      <weakClassifiers>
        <_>
          <internalNodes>
            0 -1 77 -1189602048 -753262359 -268402458 2122859418
            -1683773148 -1107047397 -118959420 -1698549030</internalNodes>
          <leafValues>
            -7.3242628574371338e-01 4.9483716487884521e-01</leafValues></_>
        <_>
          <internalNodes>
            0 -1 65 1564040570 1361236145 67498226 357507118 755165114
            1089091684 1142028850 -1816407882</internalNodes>
          <leafValues>
            -5.9085720777511597e-01 4.9903050065040588e-01</leafValues></_>
        <_>
          <internalNodes>
            0 -1 29 -707727052 -242106105 1260388937 956827957 446816429
            1207965845 -929005442 1300175679</internalNodes>
          <leafValues>
            -6.4867717027664185e-01 4.9691551923751831e-01</leafValues></_>
        <_>
          <internalNodes>
            0 -1 10 -993884705 14198147 -2129578239 1358991362
            -1607827199 16912648 33632401 -2893793</internalNodes>
          <leafValues>
            -5.9244316816329956e-01 5.3987228870391846e-01</leafValues></_>
        <_>
          <internalNodes>
            0 -1 37 -487989647 1433917213 -298860677 1539178520
            -1439309967 -273719940 235540123 510626207</internalNodes>
          <leafValues>
            -5.3049367666244507e-01 6.3206750154495239e-01</leafValues></_>
        <_>
          <internalNodes>
            0 -1 34 -1861894034 1530069081 470909167 -401932281
            -1862251646 -804714495 1006791179 -80752309</internalNodes>
          <leafValues>
            -5.5478912591934204e-01 6.2379080057144165e-01</leafValues></_>
        <_>
          <internalNodes>
            0 -1 62 1074373695 365166671 537412630 352583709 1242456089
            -2128083963 1787598333 2131932088</internalNodes>
          <leafValues>
            -6.2218689918518066e-01 5.6359666585922241e-01</leafValues></_></weakClassifiers></_>
    <!-- stage 12 -->
    <_>
      <maxWeakCount>6</maxWeakCount>
      <stageThreshold>-5.5263054370880127e-01</stageThreshold>
      <weakClassifiers>
        <_>
          <internalNodes>
            0 -1 73 1136686076 -2130362109 -1595587536 902136339
            149435322 -1451229136 34800176 136520363</internalNodes>
          <leafValues>
            -7.7128952741622925e-01 4.7866562008857727e-01</leafValues></_>
        <_>
          <internalNodes>
            0 -1 52 1699058900 286882962 1476532037 -1748139768
            1628222945 332155008 -314028081 1071147909</internalNodes>
          <leafValues>
            -6.3834261894226074e-01 4.5582866668701172e-01</leafValues></_>
        <_>
          <internalNodes>
            0 -1 19 645902208 -269484036 1719544426 -1849974362
            -1107296288 -2 2137410507 -37834757</internalNodes>
          <leafValues>
            -5.2296340465545654e-01 5.9978264570236206e-01</leafValues></_>
        <_>
          <internalNodes>
            0 -1 113 -111820797 1644169217 134228665 -2113332733
            -1876373168 411584089 -1476354904 -1419798293</internalNodes>
          <leafValues>
            -5.5000901222229004e-01 5.6665164232254028e-01</leafValues></_>
        <_>
          <internalNodes>
            0 -1 74 1590702098 -1632628611 1880215767 -711223272
            1074025435 -2146649909 -477427381 532316350</internalNodes>
          <leafValues>
            -7.1039056777954102e-01 4.3530362844467163e-01</leafValues></_>
        <_>
          <internalNodes>
            0 -1 27 60871510 -1605377627 17021521 658530306 -2128404317
            -1601140128 -1978929128 -342960046</internalNodes>
          <leafValues>
            -6.9321340322494507e-01 4.3360465764999390e-01</leafValues></_></weakClassifiers></_>
    <!-- stage 13 -->
    <_>
      <maxWeakCount>8</maxWeakCount>
      <stageThreshold>-8.6864155530929565e-01</stageThreshold>
      <weakClassifiers>
        <_>
          <internalNodes>
            0 -1 39 -2143161869 -1827634796 -2147442544 -642121261
            -1526554564 -1324465872 -1073602496 -74797248</internalNodes>
          <leafValues>
            -5.7913666963577271e-01 5.4370629787445068e-01</leafValues></_>
        <_>
          <internalNodes>
            0 -1 91 1612050839 -230162172 822165791 486901773 580911787
            1275889856 520706602 2138249738</internalNodes>
          <leafValues>
            -5.6948810815811157e-01 4.9178954958915710e-01</leafValues></_>
        <_>
          <internalNodes>
            0 -1 16 -683151266 -732545004 1394053392 491913290 17014979
            688029891 1429558 -38275670</internalNodes>
          <leafValues>
            -6.2529450654983521e-01 4.6901369094848633e-01</leafValues></_>
        <_>
          <internalNodes>
            0 -1 85 1167379400 806371592 151049602 -1815754744 227297468
            1746469281 -469663490 -1406146482</internalNodes>
          <leafValues>
            -6.4949941635131836e-01 4.8235258460044861e-01</leafValues></_>
        <_>
          <internalNodes>
            0 -1 54 -1225072956 -782739307 -451647804 1968343293
            -1660566875 -2004286588 -902501760 809125164</internalNodes>
          <leafValues>
            -8.1916874647140503e-01 3.2543736696243286e-01</leafValues></_>
        <_>
          <internalNodes>
            0 -1 71 -2102485036 -669892524 1090638105 -679067376
            -802620708 -234176384 -695688500 -80810223</internalNodes>
          <leafValues>
            -6.2382727861404419e-01 4.7933870553970337e-01</leafValues></_>
        <_>
          <internalNodes>
            0 -1 103 1493634357 -804715362 1086669083 297345673
            -1332064191 -930545151 709066890 -174421438</internalNodes>
          <leafValues>
            -7.2546315193176270e-01 4.3064749240875244e-01</leafValues></_>
        <_>
          <internalNodes>
            0 -1 75 -1783639438 -167653221 269702480 1967507544
            -1945646061 1218560665 1342312602 490558894</internalNodes>
          <leafValues>
            -7.2893285751342773e-01 4.6103742718696594e-01</leafValues></_></weakClassifiers></_>
    <!-- stage 14 -->
    <_>
      <maxWeakCount>7</maxWeakCount>
      <stageThreshold>-1.1304162740707397e+00</stageThreshold>
      <weakClassifiers>
        <_>
          <internalNodes>
            0 -1 78 -223715384 -711913343 286441602 -954171000
            -1714804536 -1178959357 -518797176 581061258</internalNodes>
          <leafValues>
            -7.5939851999282837e-01 4.6348962187767029e-01</leafValues></_>
        <_>
          <internalNodes>
            0 -1 83 -520632878 -179198914 1141478477 -1650198519
            1143263678 -945810390 -1152398130 1068461995</internalNodes>
          <leafValues>
            -5.4755532741546631e-01 5.2186042070388794e-01</leafValues></_>
        <_>
          <internalNodes>
            0 -1 99 436086583 1565851971 1971346873 -1794879225
            -1297582075 -1735245376 973090576 -1681651671</internalNodes>
          <leafValues>
            -7.2480481863021851e-01 4.2025318741798401e-01</leafValues></_>
        <_>
          <internalNodes>
            0 -1 5 -783955250 -766311802 -1979587927 589660249
            -1572831062 -2145386045 1284688263 -105010677</internalNodes>
          <leafValues>
            -6.6390323638916016e-01 4.5311391353607178e-01</leafValues></_>
        <_>
          <internalNodes>
            0 -1 114 -473175497 -1071955365 1224818824 -1048215525
            1749663745 1377075208 -1534357184 1898046479</internalNodes>
          <leafValues>
            -6.7355263233184814e-01 4.7469463944435120e-01</leafValues></_>
        <_>
          <internalNodes>
            0 -1 93 -683279196 911446478 -1593704106 -1250439023
            -802897304 -257392447 1624164543 583923207</internalNodes>
          <leafValues>
            -5.9018808603286743e-01 5.1711964607238770e-01</leafValues></_>
        <_>
          <internalNodes>
            0 -1 28 -1071488410 -1843527226 -2105304003 -46913497
            1115685395 -1332674431 -1693931277 -1146138023</internalNodes>
          <leafValues>
            -6.2845659255981445e-01 5.3668242692947388e-01</leafValues></_></weakClassifiers></_>
    <!-- stage 15 -->
    <_>
      <maxWeakCount>6</maxWeakCount>
      <stageThreshold>-5.4049897193908691e-01</stageThreshold>
      <weakClassifiers>
        <_>
          <internalNodes>
            0 -1 89 -658113983 -1861566460 114822 -2147122780
            -1595673792 -498889088 -1060197376 -275255313</internalNodes>
          <leafValues>
            -7.1120691299438477e-01 5.0970876216888428e-01</leafValues></_>
        <_>
          <internalNodes>
            0 -1 23 -483268097 -468189053 1073742203 -781352813 1556921
            33441 1090667607 -2021177215</internalNodes>
          <leafValues>
            -5.0613731145858765e-01 5.3320592641830444e-01</leafValues></_>
        <_>
          <internalNodes>
            0 -1 95 1405157295 -268337143 1077957274 -654245165
            1486901384 -242702331 880892043 1221738651</internalNodes>
          <leafValues>
            -5.0915342569351196e-01 5.5921280384063721e-01</leafValues></_>
        <_>
          <internalNodes>
            0 -1 90 -1182614740 2055798798 75532551 1545027608
            -2134327094 -661118824 -2132259649 1763905563</internalNodes>
          <leafValues>
            -5.7959091663360596e-01 5.3528815507888794e-01</leafValues></_>
        <_>
          <internalNodes>
            0 -1 87 -1921686609 60264726 -1035710053 -2004053312
            -180848101 -1031798697 1896480832 -391419576</internalNodes>
          <leafValues>
            -6.7087978124618530e-01 4.3100231885910034e-01</leafValues></_>
        <_>
          <internalNodes>
            0 -1 48 -387846076 -1172109040 -1316910511 1761689779
            -491223663 -1071380977 -2139011903 -1046380479</internalNodes>
          <leafValues>
            -7.7312219142913818e-01 3.7679049372673035e-01</leafValues></_></weakClassifiers></_>
    <!-- stage 16 -->
    <_>
      <maxWeakCount>6</maxWeakCount>
      <stageThreshold>-6.5714478492736816e-01</stageThreshold>
      <weakClassifiers>
        <_>
          <internalNodes>
            0 -1 0 -366550806 689528836 1904222223 -1056554652
            1130389638 8466433 1910546627 -443682678</internalNodes>
          <leafValues>
            -7.6410257816314697e-01 4.5648854970932007e-01</leafValues></_>
        <_>
          <internalNodes>
            0 -1 30 -669331215 -824226076 1563080219 -14713333
            -1347528334 -1342185563 1058974699 -25215209</internalNodes>
          <leafValues>
            -5.2748125791549683e-01 5.4329955577850342e-01</leafValues></_>
        <_>
          <internalNodes>
            0 -1 56 -1983790723 -2122252288 403898432 1367540945
            1099399436 -1199472566 -2103721152 -178283761</internalNodes>
          <leafValues>
            -5.9512192010879517e-01 4.5396009087562561e-01</leafValues></_>
        <_>
          <internalNodes>
            0 -1 79 -568854800 1166082112 -956276623 -1047767832
            -1072963180 -955359101 -777864310 212183210</internalNodes>
          <leafValues>
            -7.2437709569931030e-01 4.0926730632781982e-01</leafValues></_>
        <_>
          <internalNodes>
            0 -1 60 -93259520 1288003987 201699767 432753868 -1069464691
            -939474767 893495459 436695571</internalNodes>
          <leafValues>
            -7.5731152296066284e-01 3.3775553107261658e-01</leafValues></_>
        <_>
          <internalNodes>
            0 -1 115 -48831653 -653981504 470092751 -2070869854
            -2139052032 -1440706551 -1988043798 -268276933</internalNodes>
          <leafValues>
            -5.0368034839630127e-01 5.8504980802536011e-01</leafValues></_></weakClassifiers></_>
    <!-- stage 17 -->
    <_>
      <maxWeakCount>7</maxWeakCount>
      <stageThreshold>-9.2831158638000488e-01</stageThreshold>
      <weakClassifiers>
        <_>
          <internalNodes>
            0 -1 12 -16781721 -870125962 -84475922 573091535 -16797889
            977264511 -270569489 -359939841</internalNodes>
          <leafValues>
            -4.0000000596046448e-01 6.3157892227172852e-01</leafValues></_>
        <_>
          <internalNodes>
            0 -1 94 25406617 -649805817 591997 -1651130349 100891566
            1905328299 -1962717876 800412279</internalNodes>
          <leafValues>
            -5.5111813545227051e-01 5.0794500112533569e-01</leafValues></_>
        <_>
          <internalNodes>
            0 -1 100 -778102987 -921874349 -1962933493 -779631991
            -1549141932 -1943945199 -1427449724 -1097702434</internalNodes>
          <leafValues>
            -5.9683746099472046e-01 4.6661764383316040e-01</leafValues></_>
        <_>
          <internalNodes>
            0 -1 53 -1852485599 -1073612771 -2013252645 1561036809
            -1844909806 -383221695 -2138650490 149622270</internalNodes>
          <leafValues>
            -6.2763810157775879e-01 4.7458487749099731e-01</leafValues></_>
        <_>
          <internalNodes>
            0 -1 35 2082652708 -785759739 -636824567 -494747505
            -1065140204 -351719229 -1978990526 2065424058</internalNodes>
          <leafValues>
            -6.3356584310531616e-01 4.9728068709373474e-01</leafValues></_>
        <_>
          <internalNodes>
            0 -1 46 -1366163081 -964525823 -1862265904 -1945763836
            -1440566999 -1584195488 536880047 -116372973</internalNodes>
          <leafValues>
            -7.2097820043563843e-01 4.0861994028091431e-01</leafValues></_>
        <_>
          <internalNodes>
            0 -1 76 1397679887 24150024 561173 -813592134 1073760761
            1887436808 1211114139 -1325171876</internalNodes>
          <leafValues>
            -5.9103888273239136e-01 5.3278392553329468e-01</leafValues></_></weakClassifiers></_>
    <!-- stage 18 -->
    <_>
      <maxWeakCount>6</maxWeakCount>
      <stageThreshold>-4.2528945207595825e-01</stageThreshold>
      <weakClassifiers>
        <_>
          <internalNodes>
            0 -1 104 517210133 1473593600 -528397191 268505513
            -1073233068 1613381640 -510803712 -1423066938</internalNodes>
          <leafValues>
            -6.8584072589874268e-01 4.8878204822540283e-01</leafValues></_>
        <_>
          <internalNodes>
            0 -1 13 -58754433 50850607 -1426067716 -1604063617
            -142641318 -146448388 -134234385 -144179649</internalNodes>
          <leafValues>
            -4.9152553081512451e-01 5.7768708467483521e-01</leafValues></_>
        <_>
          <internalNodes>
            0 -1 68 -1978444752 -1827569399 1527777757 -675636223
            -527688982 421073096 414837179 2133043086</internalNodes>
          <leafValues>
            -6.2142807245254517e-01 4.5818001031875610e-01</leafValues></_>
        <_>
          <internalNodes>
            0 -1 41 -1432354537 247201556 2147368635 -156041424
            -299120001 -2021654577 1557107896 -541356121</internalNodes>
          <leafValues>
            -4.9488082528114319e-01 6.3515377044677734e-01</leafValues></_>
        <_>
          <internalNodes>
            0 -1 61 76949527 -998227824 -1877900680 -1006333926
            1887687049 -268369791 -1717501559 -1894250943</internalNodes>
          <leafValues>
            -7.1180075407028198e-01 4.2698431015014648e-01</leafValues></_>
        <_>
          <internalNodes>
            0 -1 51 1369466006 290190384 277954723 -708394732 807489542
            2030346306 -1467905987 969099676</internalNodes>
          <leafValues>
            -7.4325704574584961e-01 3.7707594037055969e-01</leafValues></_></weakClassifiers></_>
    <!-- stage 19 -->
    <_>
      <maxWeakCount>7</maxWeakCount>
      <stageThreshold>-9.3663692474365234e-01</stageThreshold>
      <weakClassifiers>
        <_>
          <internalNodes>
            0 -1 3 -456333334 213062 524875 50380809 134251451
            -2128567872 -690118446 -483852146</internalNodes>
          <leafValues>
            -7.1818178892135620e-01 4.8888888955116272e-01</leafValues></_>
        <_>
          <internalNodes>
            0 -1 109 -797851389 -779648895 -2130341616 -570179454
            -1874845307 -2146795377 1098940817 -709891129</internalNodes>
          <leafValues>
            -5.1155877113342285e-01 6.3512569665908813e-01</leafValues></_>
        <_>
          <internalNodes>
            0 -1 38 1356579829 806420614 1092419904 -250507252
            1284145370 1073758224 -475626642 -883234816</internalNodes>
          <leafValues>
            -5.7004749774932861e-01 5.2334868907928467e-01</leafValues></_>
        <_>
          <internalNodes>
            0 -1 44 209954705 12619836 562586321 1392574735 951146800
            1652572218 -1551859574 1942457027</internalNodes>
          <leafValues>
            -5.6591814756393433e-01 5.5765801668167114e-01</leafValues></_>
        <_>
          <internalNodes>
            0 -1 57 -2147284923 -938982115 1364525525 -28686074
            2046838953 -343277439 1258379931 -74880967</internalNodes>
          <leafValues>
            -5.8739262819290161e-01 5.2281945943832397e-01</leafValues></_>
        <_>
          <internalNodes>
            0 -1 96 -1593765710 -1072152573 21258521 -200861679
            184550095 151007929 983794955 448989246</internalNodes>
          <leafValues>
            -6.4550876617431641e-01 5.0969874858856201e-01</leafValues></_>
        <_>
          <internalNodes>
            0 -1 24 -536231163 1817760069 -754973564 1075610144
            -2143237446 1694500890 -930545581 -164998893</internalNodes>
          <leafValues>
            -6.6521364450454712e-01 4.8788908123970032e-01</leafValues></_></weakClassifiers></_></stages>
  <features>
    <_>
      <rect>
        0 10 19 25</rect></_>
    <_>
      <rect>
        0 18 30 26</rect></_>
    <_>
      <rect>
        0 19 27 14</rect></_>
    <_>
      <rect>
        0 20 21 18</rect></_>
    <_>
      <rect>
        0 36 15 12</rect></_>
    <_>
      <rect>
        0 39 22 12</rect></_>
    <_>
      <rect>
        0 46 23 12</rect></_>
    <_>
      <rect>
        0 48 14 15</rect></_>
    <_>
      <rect>
        0 64 9 13</rect></_>
    <_>
      <rect>
        0 68 25 12</rect></_>
    <_>
      <rect>
        1 29 9 11</rect></_>
    <_>
      <rect>
        1 48 19 12</rect></_>
    <_>
      <rect>
        1 63 8 9</rect></_>
    <_>
      <rect>
        1 76 8 7</rect></_>
    <_>
      <rect>
        2 11 13 27</rect></_>
    <_>
      <rect>
        2 21 30 29</rect></_>
    <_>
      <rect>
        2 37 15 25</rect></_>
    <_>
      <rect>
        3 23 21 13</rect></_>
    <_>
      <rect>
        3 35 11 15</rect></_>
    <_>
      <rect>
        3 82 26 9</rect></_>
    <_>
      <rect>
        4 28 22 13</rect></_>
    <_>
      <rect>
        4 29 12 16</rect></_>
    <_>
      <rect>
        4 44 19 12</rect></_>
    <_>
      <rect>
        5 13 10 8</rect></_>
    <_>
      <rect>
        6 43 5 3</rect></_>
    <_>
      <rect>
        9 22 9 9</rect></_>
    <_>
      <rect>
        9 27 15 16</rect></_>
    <_>
      <rect>
        10 27 16 19</rect></_>
    <_>
      <rect>
        11 45 22 10</rect></_>
    <_>
      <rect>
        12 32 18 13</rect></_>
    <_>
      <rect>
        12 45 23 9</rect></_>
    <_>
      <rect>
        13 67 22 12</rect></_>
    <_>
      <rect>
        14 53 21 6</rect></_>
    <_>
      <rect>
        15 33 8 4</rect></_>
    <_>
      <rect>
        15 86 8 4</rect></_>
    <_>
      <rect>
        15 88 6 4</rect></_>
    <_>
      <rect>
        16 40 9 11</rect></_>
    <_>
      <rect>
        16 46 15 9</rect></_>
    <_>
      <rect>
        16 68 19 12</rect></_>
    <_>
      <rect>
        16 68 23 14</rect></_>
    <_>
      <rect>
        18 49 20 8</rect></_>
    <_>
      <rect>
        18 50 20 5</rect></_>
    <_>
      <rect>
        19 34 24 12</rect></_>
    <_>
      <rect>
        19 42 16 11</rect></_>
    <_>
      <rect>
        19 50 16 7</rect></_>
    <_>
      <rect>
        20 19 14 10</rect></_>
    <_>
      <rect>
        20 34 6 4</rect></_>
    <_>
      <rect>
        20 47 20 9</rect></_>
    <_>
      <rect>
        20 50 15 13</rect></_>
    <_>
      <rect>
        21 34 17 10</rect></_>
    <_>
      <rect>
        21 43 18 10</rect></_>
    <_>
      <rect>
        21 44 9 8</rect></_>
    <_>
      <rect>
        21 47 9 7</rect></_>
    <_>
      <rect>
        21 48 15 7</rect></_>
    <_>
      <rect>
        22 30 12 11</rect></_>
    <_>
      <rect>
        22 43 22 10</rect></_>
    <_>
      <rect>
        22 69 23 10</rect></_>
    <_>
      <rect>
        23 29 4 2</rect></_>
    <_>
      <rect>
        23 45 16 9</rect></_>
    <_>
      <rect>
        24 27 9 13</rect></_>
    <_>
      <rect>
        24 27 10 15</rect></_>
    <_>
      <rect>
        24 36 4 2</rect></_>
    <_>
      <rect>
        24 43 17 8</rect></_>
    <_>
      <rect>
        26 47 16 7</rect></_>
    <_>
      <rect>
        26 48 14 10</rect></_>
    <_>
      <rect>
        27 31 14 17</rect></_>
    <_>
      <rect>
        27 43 21 11</rect></_>
    <_>
      <rect>
        28 36 17 18</rect></_>
    <_>
      <rect>
        28 46 14 8</rect></_>
    <_>
      <rect>
        28 50 13 14</rect></_>
    <_>
      <rect>
        29 36 21 15</rect></_>
    <_>
      <rect>
        29 82 12 10</rect></_>
    <_>
      <rect>
        30 30 13 12</rect></_>
    <_>
      <rect>
        30 30 16 13</rect></_>
    <_>
      <rect>
        30 45 13 9</rect></_>
    <_>
      <rect>
        31 40 9 13</rect></_>
    <_>
      <rect>
        31 49 7 5</rect></_>
    <_>
      <rect>
        32 25 12 8</rect></_>
    <_>
      <rect>
        32 30 10 11</rect></_>
    <_>
      <rect>
        32 39 10 12</rect></_>
    <_>
      <rect>
        32 40 14 11</rect></_>
    <_>
      <rect>
        32 42 15 10</rect></_>
    <_>
      <rect>
        33 26 16 9</rect></_>
    <_>
      <rect>
        33 47 11 9</rect></_>
    <_>
      <rect>
        33 48 8 8</rect></_>
    <_>
      <rect>
        33 49 8 7</rect></_>
    <_>
      <rect>
        34 47 5 6</rect></_>
    <_>
      <rect>
        34 53 6 2</rect></_>
    <_>
      <rect>
        38 17 18 24</rect></_>
    <_>
      <rect>
        39 18 17 24</rect></_>
    <_>
      <rect>
        39 55 10 8</rect></_>
    <_>
      <rect>
        40 48 12 7</rect></_>
    <_>
      <rect>
        41 37 17 24</rect></_>
    <_>
      <rect>
        42 44 5 8</rect></_>
    <_>
      <rect>
        42 45 10 6</rect></_>
    <_>
      <rect>
        44 41 10 13</rect></_>
    <_>
      <rect>
        44 45 11 9</rect></_>
    <_>
      <rect>
        45 55 1 1</rect></_>
    <_>
      <rect>
        46 20 13 8</rect></_>
    <_>
      <rect>
        47 30 6 3</rect></_>
    <_>
      <rect>
        51 26 5 7</rect></_>
    <_>
      <rect>
        53 26 13 27</rect></_>
    <_>
      <rect>
        55 22 5 8</rect></_>
    <_>
      <rect>
        55 27 7 7</rect></_>
    <_>
      <rect>
        59 29 6 6</rect></_>
    <_>
      <rect>
        60 30 10 10</rect></_>
    <_>
      <rect>
        61 27 7 6</rect></_>
    <_>
      <rect>
        62 67 7 6</rect></_>
    <_>
      <rect>
        64 28 9 13</rect></_>
    <_>
      <rect>
        64 73 8 8</rect></_>
    <_>
      <rect>
        64 73 8 10</rect></_>
    <_>
      <rect>
        65 29 8 13</rect></_>
    <_>
      <rect>
        67 11 8 12</rect></_>
    <_>
      <rect>
        67 30 5 4</rect></_>
    <_>
      <rect>
        71 38 5 5</rect></_>
    <_>
      <rect>
        72 31 4 3</rect></_>
    <_>
      <rect>
        72 44 5 6</rect></_></features></cascade>
</opencv_storage>
