<?xml version="1.0"?>
<opencv_storage>
<stage12>
  <maxWeakCount>6</maxWeakCount>
  <stageThreshold>-5.5263054370880127e-01</stageThreshold>
  <weakClassifiers>
    <_>
      <internalNodes>
        0 -1 1604797 1136686076 -2130362109 -1595587536 902136339
        149435322 -1451229136 34800176 136520363</internalNodes>
      <leafValues>
        -7.7128952741622925e-01 4.7866562008857727e-01</leafValues></_>
    <_>
      <internalNodes>
        0 -1 1206715 1699058900 286882962 1476532037 -1748139768
        1628222945 332155008 -314028081 1071147909</internalNodes>
      <leafValues>
        -6.3834261894226074e-01 4.5582866668701172e-01</leafValues></_>
    <_>
      <internalNodes>
        0 -1 242621 645902208 -269484036 1719544426 -1849974362
        -1107296288 -2 2137410507 -37834757</internalNodes>
      <leafValues>
        -5.2296340465545654e-01 5.9978264570236206e-01</leafValues></_>
    <_>
      <internalNodes>
        0 -1 2691071 -111820797 1644169217 134228665 -2113332733
        -1876373168 411584089 -1476354904 -1419798293</internalNodes>
      <leafValues>
        -5.5000901222229004e-01 5.6665164232254028e-01</leafValues></_>
    <_>
      <internalNodes>
        0 -1 1612052 1590702098 -1632628611 1880215767 -711223272
        1074025435 -2146649909 -477427381 532316350</internalNodes>
      <leafValues>
        -7.1039056777954102e-01 4.3530362844467163e-01</leafValues></_>
    <_>
      <internalNodes>
        0 -1 620988 60871510 -1605377627 17021521 658530306 -2128404317
        -1601140128 -1978929128 -342960046</internalNodes>
      <leafValues>
        -6.9321340322494507e-01 4.3360465764999390e-01</leafValues></_></weakClassifiers></stage12>
</opencv_storage>
