<?xml version="1.0"?>
<opencv_storage>
<stage7>
  <maxWeakCount>6</maxWeakCount>
  <stageThreshold>-4.9582633376121521e-01</stageThreshold>
  <weakClassifiers>
    <_>
      <internalNodes>
        0 -1 41205 -666742580 -263782236 -1067429461 264618179
        -1532816980 -2133106517 -1589471046 -6571090</internalNodes>
      <leafValues>
        -6.5267175436019897e-01 5.4591834545135498e-01</leafValues></_>
    <_>
      <internalNodes>
        0 -1 2767875 -1018827005 1300955649 -2147376995 -796688295
        1361773073 -1017479135 -1325295612 -151522309</internalNodes>
      <leafValues>
        -5.8607339859008789e-01 5.3896790742874146e-01</leafValues></_>
    <_>
      <internalNodes>
        0 -1 2439427 -739306411 -1014890427 1224917247 1224952859
        -1039415227 -67075904 -479753560 -1156375841</internalNodes>
      <leafValues>
        -6.5718114376068115e-01 4.9458184838294983e-01</leafValues></_>
    <_>
      <internalNodes>
        0 -1 1337432 -794363164 -705198909 22020381 352333826
        -1593605235 -1971224576 1175505537 313749889</internalNodes>
      <leafValues>
        -7.4269562959671021e-01 4.7222995758056641e-01</leafValues></_>
    <_>
      <internalNodes>
        0 -1 51020 -715442950 907165899 16863378 604126931 -165597003
        -746586104 -939404149 -1069292945</internalNodes>
      <leafValues>
        -6.6335016489028931e-01 5.1114350557327271e-01</leafValues></_>
    <_>
      <internalNodes>
        0 -1 1158599 -499919615 1959854096 -494325441 -1030286077
        688046370 -91078568 227454875 -1198578849</internalNodes>
      <leafValues>
        -6.4515221118927002e-01 5.3214436769485474e-01</leafValues></_></weakClassifiers></stage7>
</opencv_storage>
