<?xml version="1.0"?>
<opencv_storage>
<stage6>
  <maxWeakCount>6</maxWeakCount>
  <stageThreshold>-8.2655769586563110e-01</stageThreshold>
  <weakClassifiers>
    <_>
      <internalNodes>
        0 -1 2186122 -178291179 1426587931 1006655765 1377108030
        -2138510779 1078525963 -922015560 789226543</internalNodes>
      <leafValues>
        -7.3684209585189819e-01 5.5058044195175171e-01</leafValues></_>
    <_>
      <internalNodes>
        0 -1 1252642 -1137392557 -318701411 -485143013 1348358449
        -1599977438 -1206878208 -2011757813 -51646101</internalNodes>
      <leafValues>
        -6.5148234367370605e-01 5.1749455928802490e-01</leafValues></_>
    <_>
      <internalNodes>
        0 -1 2390120 -640961360 -955149818 537018819 1359074887
        -391056908 -2013233021 -1863778059 -370414609</internalNodes>
      <leafValues>
        -7.2670346498489380e-01 4.5781567692756653e-01</leafValues></_>
    <_>
      <internalNodes>
        0 -1 1604715 -204734516 -528268919 285312164 -1056948094
        -666459992 -2004843900 1367475340 554402314</internalNodes>
      <leafValues>
        -8.0869823694229126e-01 4.5509234070777893e-01</leafValues></_>
    <_>
      <internalNodes>
        0 -1 2167620 927805539 -1571717073 -792117078 -900463738
        -661752724 -1484742132 -771370940 -337708928</internalNodes>
      <leafValues>
        -7.7018743753433228e-01 4.0704137086868286e-01</leafValues></_>
    <_>
      <internalNodes>
        0 -1 560939 239111647 -1039398461 -1189850853 -46120693
        -503217781 88162432 17277595 -237827703</internalNodes>
      <leafValues>
        -6.6661751270294189e-01 5.2115011215209961e-01</leafValues></_></weakClassifiers></stage6>
</opencv_storage>
