<?xml version="1.0"?>
<opencv_storage>
<stage17>
  <maxWeakCount>7</maxWeakCount>
  <stageThreshold>-9.2831158638000488e-01</stageThreshold>
  <weakClassifiers>
    <_>
      <internalNodes>
        0 -1 112680 -16781721 -870125962 -84475922 573091535 -16797889
        977264511 -270569489 -359939841</internalNodes>
      <leafValues>
        -4.0000000596046448e-01 6.3157892227172852e-01</leafValues></_>
    <_>
      <internalNodes>
        0 -1 2066627 25406617 -649805817 591997 -1651130349 100891566
        1905328299 -1962717876 800412279</internalNodes>
      <leafValues>
        -5.5111813545227051e-01 5.0794500112533569e-01</leafValues></_>
    <_>
      <internalNodes>
        0 -1 2336004 -778102987 -921874349 -1962933493 -779631991
        -1549141932 -1943945199 -1427449724 -1097702434</internalNodes>
      <leafValues>
        -5.9683746099472046e-01 4.6661764383316040e-01</leafValues></_>
    <_>
      <internalNodes>
        0 -1 1207324 -1852485599 -1073612771 -2013252645 1561036809
        -1844909806 -383221695 -2138650490 149622270</internalNodes>
      <leafValues>
        -6.2763810157775879e-01 4.7458487749099731e-01</leafValues></_>
    <_>
      <internalNodes>
        0 -1 919783 2082652708 -785759739 -636824567 -494747505
        -1065140204 -351719229 -1978990526 2065424058</internalNodes>
      <leafValues>
        -6.3356584310531616e-01 4.9728068709373474e-01</leafValues></_>
    <_>
      <internalNodes>
        0 -1 1150933 -1366163081 -964525823 -1862265904 -1945763836
        -1440566999 -1584195488 536880047 -116372973</internalNodes>
      <leafValues>
        -7.2097820043563843e-01 4.0861994028091431e-01</leafValues></_>
    <_>
      <internalNodes>
        0 -1 1655070 1397679887 24150024 561173 -813592134 1073760761
        1887436808 1211114139 -1325171876</internalNodes>
      <leafValues>
        -5.9103888273239136e-01 5.3278392553329468e-01</leafValues></_></weakClassifiers></stage17>
</opencv_storage>
