<?xml version="1.0"?>
<opencv_storage>
<stage11>
  <maxWeakCount>7</maxWeakCount>
  <stageThreshold>-8.4084469079971313e-01</stageThreshold>
  <weakClassifiers>
    <_>
      <internalNodes>
        0 -1 1684786 -1189602048 -753262359 -268402458 2122859418
        -1683773148 -1107047397 -118959420 -1698549030</internalNodes>
      <leafValues>
        -7.3242628574371338e-01 4.9483716487884521e-01</leafValues></_>
    <_>
      <internalNodes>
        0 -1 1475743 1564040570 1361236145 67498226 357507118 755165114
        1089091684 1142028850 -1816407882</internalNodes>
      <leafValues>
        -5.9085720777511597e-01 4.9903050065040588e-01</leafValues></_>
    <_>
      <internalNodes>
        0 -1 735572 -707727052 -242106105 1260388937 956827957 446816429
        1207965845 -929005442 1300175679</internalNodes>
      <leafValues>
        -6.4867717027664185e-01 4.9691551923751831e-01</leafValues></_>
    <_>
      <internalNodes>
        0 -1 90526 -993884705 14198147 -2129578239 1358991362
        -1607827199 16912648 33632401 -2893793</internalNodes>
      <leafValues>
        -5.9244316816329956e-01 5.3987228870391846e-01</leafValues></_>
    <_>
      <internalNodes>
        0 -1 956281 -487989647 1433917213 -298860677 1539178520
        -1439309967 -273719940 235540123 510626207</internalNodes>
      <leafValues>
        -5.3049367666244507e-01 6.3206750154495239e-01</leafValues></_>
    <_>
      <internalNodes>
        0 -1 919399 -1861894034 1530069081 470909167 -401932281
        -1862251646 -804714495 1006791179 -80752309</internalNodes>
      <leafValues>
        -5.5478912591934204e-01 6.2379080057144165e-01</leafValues></_>
    <_>
      <internalNodes>
        0 -1 1346547 1074373695 365166671 537412630 352583709 1242456089
        -2128083963 1787598333 2131932088</internalNodes>
      <leafValues>
        -6.2218689918518066e-01 5.6359666585922241e-01</leafValues></_></weakClassifiers></stage11>
</opencv_storage>
