<?xml version="1.0"?>
<opencv_storage>
<stage14>
  <maxWeakCount>7</maxWeakCount>
  <stageThreshold>-1.1304162740707397e+00</stageThreshold>
  <weakClassifiers>
    <_>
      <internalNodes>
        0 -1 1687513 -223715384 -711913343 286441602 -954171000
        -1714804536 -1178959357 -518797176 581061258</internalNodes>
      <leafValues>
        -7.5939851999282837e-01 4.6348962187767029e-01</leafValues></_>
    <_>
      <internalNodes>
        0 -1 1735819 -520632878 -179198914 1141478477 -1650198519
        1143263678 -945810390 -1152398130 1068461995</internalNodes>
      <leafValues>
        -5.4755532741546631e-01 5.2186042070388794e-01</leafValues></_>
    <_>
      <internalNodes>
        0 -1 2221292 436086583 1565851971 1971346873 -1794879225
        -1297582075 -1735245376 973090576 -1681651671</internalNodes>
      <leafValues>
        -7.2480481863021851e-01 4.2025318741798401e-01</leafValues></_>
    <_>
      <internalNodes>
        0 -1 36395 -783955250 -766311802 -1979587927 589660249
        -1572831062 -2145386045 1284688263 -105010677</internalNodes>
      <leafValues>
        -6.6390323638916016e-01 4.5311391353607178e-01</leafValues></_>
    <_>
      <internalNodes>
        0 -1 2753704 -473175497 -1071955365 1224818824 -1048215525
        1749663745 1377075208 -1534357184 1898046479</internalNodes>
      <leafValues>
        -6.7355263233184814e-01 4.7469463944435120e-01</leafValues></_>
    <_>
      <internalNodes>
        0 -1 2066167 -683279196 911446478 -1593704106 -1250439023
        -802897304 -257392447 1624164543 583923207</internalNodes>
      <leafValues>
        -5.9018808603286743e-01 5.1711964607238770e-01</leafValues></_>
    <_>
      <internalNodes>
        0 -1 689196 -1071488410 -1843527226 -2105304003 -46913497
        1115685395 -1332674431 -1693931277 -1146138023</internalNodes>
      <leafValues>
        -6.2845659255981445e-01 5.3668242692947388e-01</leafValues></_></weakClassifiers></stage14>
</opencv_storage>
