<?xml version="1.0"?>
<opencv_storage>
<stage15>
  <maxWeakCount>6</maxWeakCount>
  <stageThreshold>-5.4049897193908691e-01</stageThreshold>
  <weakClassifiers>
    <_>
      <internalNodes>
        0 -1 1950366 -658113983 -1861566460 114822 -2147122780
        -1595673792 -498889088 -1060197376 -275255313</internalNodes>
      <leafValues>
        -7.1120691299438477e-01 5.0970876216888428e-01</leafValues></_>
    <_>
      <internalNodes>
        0 -1 320155 -483268097 -468189053 1073742203 -781352813 1556921
        33441 1090667607 -2021177215</internalNodes>
      <leafValues>
        -5.0613731145858765e-01 5.3320592641830444e-01</leafValues></_>
    <_>
      <internalNodes>
        0 -1 2131491 1405157295 -268337143 1077957274 -654245165
        1486901384 -242702331 880892043 1221738651</internalNodes>
      <leafValues>
        -5.0915342569351196e-01 5.5921280384063721e-01</leafValues></_>
    <_>
      <internalNodes>
        0 -1 1965750 -1182614740 2055798798 75532551 1545027608
        -2134327094 -661118824 -2132259649 1763905563</internalNodes>
      <leafValues>
        -5.7959091663360596e-01 5.3528815507888794e-01</leafValues></_>
    <_>
      <internalNodes>
        0 -1 1777402 -1921686609 60264726 -1035710053 -2004053312
        -180848101 -1031798697 1896480832 -391419576</internalNodes>
      <leafValues>
        -6.7087978124618530e-01 4.3100231885910034e-01</leafValues></_>
    <_>
      <internalNodes>
        0 -1 1159996 -387846076 -1172109040 -1316910511 1761689779
        -491223663 -1071380977 -2139011903 -1046380479</internalNodes>
      <leafValues>
        -7.7312219142913818e-01 3.7679049372673035e-01</leafValues></_></weakClassifiers></stage15>
</opencv_storage>
