<?xml version="1.0"?>
<opencv_storage>
<stage16>
  <maxWeakCount>6</maxWeakCount>
  <stageThreshold>-6.5714478492736816e-01</stageThreshold>
  <weakClassifiers>
    <_>
      <internalNodes>
        0 -1 11286 -366550806 689528836 1904222223 -1056554652
        1130389638 8466433 1910546627 -443682678</internalNodes>
      <leafValues>
        -7.6410257816314697e-01 4.5648854970932007e-01</leafValues></_>
    <_>
      <internalNodes>
        0 -1 743826 -669331215 -824226076 1563080219 -14713333
        -1347528334 -1342185563 1058974699 -25215209</internalNodes>
      <leafValues>
        -5.2748125791549683e-01 5.4329955577850342e-01</leafValues></_>
    <_>
      <internalNodes>
        0 -1 1263530 -1983790723 -2122252288 403898432 1367540945
        1099399436 -1199472566 -2103721152 -178283761</internalNodes>
      <leafValues>
        -5.9512192010879517e-01 4.5396009087562561e-01</leafValues></_>
    <_>
      <internalNodes>
        0 -1 1692107 -568854800 1166082112 -956276623 -1047767832
        -1072963180 -955359101 -777864310 212183210</internalNodes>
      <leafValues>
        -7.2437709569931030e-01 4.0926730632781982e-01</leafValues></_>
    <_>
      <internalNodes>
        0 -1 1337462 -93259520 1288003987 201699767 432753868
        -1069464691 -939474767 893495459 436695571</internalNodes>
      <leafValues>
        -7.5731152296066284e-01 3.3775553107261658e-01</leafValues></_>
    <_>
      <internalNodes>
        0 -1 2765939 -48831653 -653981504 470092751 -2070869854
        -2139052032 -1440706551 -1988043798 -268276933</internalNodes>
      <leafValues>
        -5.0368034839630127e-01 5.8504980802536011e-01</leafValues></_></weakClassifiers></stage16>
</opencv_storage>
