<?xml version="1.0"?>
<opencv_storage>
<stage10>
  <maxWeakCount>7</maxWeakCount>
  <stageThreshold>-8.2992726564407349e-01</stageThreshold>
  <weakClassifiers>
    <_>
      <internalNodes>
        0 -1 53057 -2129 -202444822 -1130812 -83188224 -10 -404815897
        -135398993 -16517366</internalNodes>
      <leafValues>
        -4.4594594836235046e-01 6.5625000000000000e-01</leafValues></_>
    <_>
      <internalNodes>
        0 -1 1692682 1267582719 -786104170 1476478294 -202685947
        411235242 -504134968 420123786 1895989930</internalNodes>
      <leafValues>
        -5.3995835781097412e-01 5.6630146503448486e-01</leafValues></_>
    <_>
      <internalNodes>
        0 -1 565013 -1573979185 -1487634165 553718157 118842380
        -935229009 -1735778200 1082192201 1261436574</internalNodes>
      <leafValues>
        -5.8647793531417847e-01 5.3905522823333740e-01</leafValues></_>
    <_>
      <internalNodes>
        0 -1 952742 -95311052 -1324314160 1091637760 2140406284
        562127359 377799425 1344995603 1270827600</internalNodes>
      <leafValues>
        -6.8876707553863525e-01 4.8251760005950928e-01</leafValues></_>
    <_>
      <internalNodes>
        0 -1 2656659 -950930927 1287848207 -2138472091 -1069362593
        1040584961 1140858885 -1048558592 -230307121</internalNodes>
      <leafValues>
        -6.8415462970733643e-01 4.7286194562911987e-01</leafValues></_>
    <_>
      <internalNodes>
        0 -1 1528591 -578619448 -585957301 295057 -515829760 -1669037569
        504627278 -1868551861 -1723475489</internalNodes>
      <leafValues>
        -6.4560621976852417e-01 4.8942369222640991e-01</leafValues></_>
    <_>
      <internalNodes>
        0 -1 2645893 -1676189205 -620752800 1074841601 -1862168434
        1075250138 -1073627007 -662683244 -597456859</internalNodes>
      <leafValues>
        -6.0584002733230591e-01 5.8189529180526733e-01</leafValues></_></weakClassifiers></stage10>
</opencv_storage>
