<?xml version="1.0"?>
<opencv_storage>
<stage18>
  <maxWeakCount>6</maxWeakCount>
  <stageThreshold>-4.2528945207595825e-01</stageThreshold>
  <weakClassifiers>
    <_>
      <internalNodes>
        0 -1 2536226 517210133 1473593600 -528397191 268505513
        -1073233068 1613381640 -510803712 -1423066938</internalNodes>
      <leafValues>
        -6.8584072589874268e-01 4.8878204822540283e-01</leafValues></_>
    <_>
      <internalNodes>
        0 -1 118110 -58754433 50850607 -1426067716 -1604063617
        -142641318 -146448388 -134234385 -144179649</internalNodes>
      <leafValues>
        -4.9152553081512451e-01 5.7768708467483521e-01</leafValues></_>
    <_>
      <internalNodes>
        0 -1 1526846 -1978444752 -1827569399 1527777757 -675636223
        -527688982 421073096 414837179 2133043086</internalNodes>
      <leafValues>
        -6.2142807245254517e-01 4.5818001031875610e-01</leafValues></_>
    <_>
      <internalNodes>
        0 -1 1060632 -1432354537 247201556 2147368635 -156041424
        -299120001 -2021654577 1557107896 -541356121</internalNodes>
      <leafValues>
        -4.9488082528114319e-01 6.3515377044677734e-01</leafValues></_>
    <_>
      <internalNodes>
        0 -1 1342552 76949527 -998227824 -1877900680 -1006333926
        1887687049 -268369791 -1717501559 -1894250943</internalNodes>
      <leafValues>
        -7.1180075407028198e-01 4.2698431015014648e-01</leafValues></_>
    <_>
      <internalNodes>
        0 -1 1205206 1369466006 290190384 277954723 -708394732 807489542
        2030346306 -1467905987 969099676</internalNodes>
      <leafValues>
        -7.4325704574584961e-01 3.7707594037055969e-01</leafValues></_></weakClassifiers></stage18>
</opencv_storage>
