<?xml version="1.0"?>
<opencv_storage>
<stage3>
  <maxWeakCount>5</maxWeakCount>
  <stageThreshold>-1.0434073209762573e+00</stageThreshold>
  <weakClassifiers>
    <_>
      <internalNodes>
        0 -1 1565644 -75499581 -550796683 -1870653177 -2091032273
        -1147621840 -349984744 -883879936 -8402853</internalNodes>
      <leafValues>
        -7.0940172672271729e-01 6.4125561714172363e-01</leafValues></_>
    <_>
      <internalNodes>
        0 -1 1199882 -705900070 -101202933 -1827501796 1594534664
        -1999787585 -1983209469 35883160 1057106954</internalNodes>
      <leafValues>
        -7.5321930646896362e-01 5.2768498659133911e-01</leafValues></_>
    <_>
      <internalNodes>
        0 -1 285052 -783876216 -618209272 304386251 799768729
        -1668983285 -1694334963 411735179 -12596289</internalNodes>
      <leafValues>
        -7.3752850294113159e-01 4.9914792180061340e-01</leafValues></_>
    <_>
      <internalNodes>
        0 -1 808114 -137915905 -1870643118 1368408210 -741859068
        -2130460218 -852983796 -393624820 -280717056</internalNodes>
      <leafValues>
        -6.9762986898422241e-01 5.3712534904479980e-01</leafValues></_>
    <_>
      <internalNodes>
        0 -1 1204894 -662449423 -670646202 33714237 1495859615
        -1207835677 -1928822780 1074384283 -619732973</internalNodes>
      <leafValues>
        -6.1705952882766724e-01 6.3232070207595825e-01</leafValues></_></weakClassifiers></stage3>
</opencv_storage>
