<?xml version="1.0"?>
<opencv_storage>
<stage19>
  <maxWeakCount>7</maxWeakCount>
  <stageThreshold>-9.3663692474365234e-01</stageThreshold>
  <weakClassifiers>
    <_>
      <internalNodes>
        0 -1 20927 -456333334 213062 524875 50380809 134251451
        -2128567872 -690118446 -483852146</internalNodes>
      <leafValues>
        -7.1818178892135620e-01 4.8888888955116272e-01</leafValues></_>
    <_>
      <internalNodes>
        0 -1 2645891 -797851389 -779648895 -2130341616 -570179454
        -1874845307 -2146795377 1098940817 -709891129</internalNodes>
      <leafValues>
        -5.1155877113342285e-01 6.3512569665908813e-01</leafValues></_>
    <_>
      <internalNodes>
        0 -1 966228 1356579829 806420614 1092419904 -250507252
        1284145370 1073758224 -475626642 -883234816</internalNodes>
      <leafValues>
        -5.7004749774932861e-01 5.2334868907928467e-01</leafValues></_>
    <_>
      <internalNodes>
        0 -1 1110282 209954705 12619836 562586321 1392574735 951146800
        1652572218 -1551859574 1942457027</internalNodes>
      <leafValues>
        -5.6591814756393433e-01 5.5765801668167114e-01</leafValues></_>
    <_>
      <internalNodes>
        0 -1 1291792 -2147284923 -938982115 1364525525 -28686074
        2046838953 -343277439 1258379931 -74880967</internalNodes>
      <leafValues>
        -5.8739262819290161e-01 5.2281945943832397e-01</leafValues></_>
    <_>
      <internalNodes>
        0 -1 2132956 -1593765710 -1072152573 21258521 -200861679
        184550095 151007929 983794955 448989246</internalNodes>
      <leafValues>
        -6.4550876617431641e-01 5.0969874858856201e-01</leafValues></_>
    <_>
      <internalNodes>
        0 -1 402958 -536231163 1817760069 -754973564 1075610144
        -2143237446 1694500890 -930545581 -164998893</internalNodes>
      <leafValues>
        -6.6521364450454712e-01 4.8788908123970032e-01</leafValues></_></weakClassifiers></stage19>
</opencv_storage>
